digraph Tree {
node [shape=box, style="filled, rounded", color="black", fontname=helvetica] ;
edge [fontname=helvetica] ;
0 [label="sepal length (cm) <= 5.55\ngini = 0.66\nsamples = 67\nvalue = [30, 40, 35]\nclass = versicolor", fillcolor="#f1fdf6"] ;
1 [label="petal width (cm) <= 0.8\ngini = 0.22\nsamples = 24\nvalue = [28, 4, 0]\nclass = setosa", fillcolor="#e99355"] ;
0 -> 1 [labeldistance=2.5, labelangle=45, headlabel="True"] ;
2 [label="gini = 0.0\nsamples = 22\nvalue = [28, 0, 0]\nclass = setosa", fillcolor="#e58139"] ;
1 -> 2 ;
3 [label="gini = 0.0\nsamples = 2\nvalue = [0, 4, 0]\nclass = versicolor", fillcolor="#39e581"] ;
1 -> 3 ;
4 [label="petal width (cm) <= 1.75\ngini = 0.53\nsamples = 43\nvalue = [2, 36, 35]\nclass = versicolor", fillcolor="#fafefc"] ;
0 -> 4 [labeldistance=2.5, labelangle=-45, headlabel="False"] ;
5 [label="petal width (cm) <= 0.6\ngini = 0.22\nsamples = 23\nvalue = [2, 36, 3]\nclass = versicolor", fillcolor="#53e892"] ;
4 -> 5 ;
6 [label="gini = 0.0\nsamples = 1\nvalue = [2, 0, 0]\nclass = setosa", fillcolor="#e58139"] ;
5 -> 6 ;
7 [label="petal length (cm) <= 5.05\ngini = 0.14\nsamples = 22\nvalue = [0, 36, 3]\nclass = versicolor", fillcolor="#49e78c"] ;
5 -> 7 ;
8 [label="gini = 0.0\nsamples = 20\nvalue = [0, 36, 0]\nclass = versicolor", fillcolor="#39e581"] ;
7 -> 8 ;
9 [label="gini = 0.0\nsamples = 2\nvalue = [0, 0, 3]\nclass = virginica", fillcolor="#8139e5"] ;
7 -> 9 ;
10 [label="gini = 0.0\nsamples = 20\nvalue = [0, 0, 32]\nclass = virginica", fillcolor="#8139e5"] ;
4 -> 10 ;
}